<?xml version="1.0"?>
<opencv_storage>
<cascade>
  <stageType>BOOST</stageType>
  <featureType>LBP</featureType>
  <height>25</height>
  <width>50</width>
  <stageParams>
    <boostType>GAB</boostType>
    <minHitRate>9.9998998641967773e-01</minHitRate>
    <maxFalseAlarm>4.1999998688697815e-01</maxFalseAlarm>
    <weightTrimRate>9.4999999999999996e-01</weightTrimRate>
    <maxDepth>1</maxDepth>
    <maxWeakCount>100</maxWeakCount></stageParams>
  <featureParams>
    <maxCatCount>256</maxCatCount>
    <featSize>1</featSize></featureParams>
  <stageNum>15</stageNum>
  <stages>
    <!-- stage 0 -->
    <_>
      <maxWeakCount>5</maxWeakCount>
      <stageThreshold>-1.4918190240859985e+00</stageThreshold>
      <weakClassifiers>
        <_>
          <internalNodes>
            0 -1 59 461446015 521344281 -1191112193 393811959 -373163073
            461998252 -1198552065 748655275</internalNodes>
          <leafValues>
            -8.7520527839660645e-01 5.1148223876953125e-01</leafValues></_>
        <_>
          <internalNodes>
            0 -1 21 357636983 -178302589 1359024127 -105389089 940841279
            2075984641 1262160591 2077440805</internalNodes>
          <leafValues>
            -8.2983624935150146e-01 4.5417979359626770e-01</leafValues></_>
        <_>
          <internalNodes>
            0 -1 10 -44246021 -9317935 -44435491 -179138061 -1073448771
            -75259703 -1630576641 389051170</internalNodes>
          <leafValues>
            -8.1066304445266724e-01 4.4546678662300110e-01</leafValues></_>
        <_>
          <internalNodes>
            0 -1 25 -545293449 -626281 -1828644965 -543672485
            -1007605676 1040974131 2038590046 -8947853</internalNodes>
          <leafValues>
            -6.6238188743591309e-01 5.2806514501571655e-01</leafValues></_>
        <_>
          <internalNodes>
            0 -1 86 -104288048 -246382328 -1870345159 -543059961
            -780078664 -401997680 -1744512835 -996609297</internalNodes>
          <leafValues>
            -7.6879996061325073e-01 4.9582031369209290e-01</leafValues></_></weakClassifiers></_>
    <!-- stage 1 -->
    <_>
      <maxWeakCount>5</maxWeakCount>
      <stageThreshold>-2.0553545951843262e+00</stageThreshold>
      <weakClassifiers>
        <_>
          <internalNodes>
            0 -1 93 -547357697 -1886944395 1426560983 1028780447
            -73950209 -1735292533 61722303 150973167</internalNodes>
          <leafValues>
            -7.9693794250488281e-01 4.4171121716499329e-01</leafValues></_>
        <_>
          <internalNodes>
            0 -1 70 274734517 -1746962153 -48893473 -144895337
            -1088652289 -305482036 -1441875009 -1145423442</internalNodes>
          <leafValues>
            -5.9173011779785156e-01 6.3060778379440308e-01</leafValues></_>
        <_>
          <internalNodes>
            0 -1 45 -220266497 -136906369 -1853173349 -1962413417
            -5973249 -209043317 -878642245 993033146</internalNodes>
          <leafValues>
            -6.9157660007476807e-01 4.8231959342956543e-01</leafValues></_>
        <_>
          <internalNodes>
            0 -1 18 -69251243 -11365639 -1040770949 2073765978
            -653259967 -114605533 -148409004 -77105561</internalNodes>
          <leafValues>
            -7.0444440841674805e-01 4.5838275551795959e-01</leafValues></_>
        <_>
          <internalNodes>
            0 -1 87 -1208019715 -1081196677 1073561591 -164899
            -134221825 -638664705 -1644216385 -1377298276</internalNodes>
          <leafValues>
            -5.0931471586227417e-01 6.5507370233535767e-01</leafValues></_></weakClassifiers></_>
    <!-- stage 2 -->
    <_>
      <maxWeakCount>6</maxWeakCount>
      <stageThreshold>-1.6508815288543701e+00</stageThreshold>
      <weakClassifiers>
        <_>
          <internalNodes>
            0 -1 67 1540447615 1037530493 352687583 1060707741
            -220481025 -1146387812 -1734149665 686811099</internalNodes>
          <leafValues>
            -7.8406167030334473e-01 3.3597621321678162e-01</leafValues></_>
        <_>
          <internalNodes>
            0 -1 15 -686164001 -539664425 421205919 -10794061 759845055
            2056028600 -1182716993 1901426023</internalNodes>
          <leafValues>
            -7.1260875463485718e-01 4.1503179073333740e-01</leafValues></_>
        <_>
          <internalNodes>
            0 -1 119 -8396817 932702806 117608735 225957343 -1378768172
            -1485389694 683540670 83878389</internalNodes>
          <leafValues>
            -6.7724329233169556e-01 4.3137282133102417e-01</leafValues></_>
        <_>
          <internalNodes>
            0 -1 19 -23242883 -1214526903 -922259141 -161916273
            1262893109 -1694275574 -645519090 -75530381</internalNodes>
          <leafValues>
            -5.4744637012481689e-01 5.4283684492111206e-01</leafValues></_>
        <_>
          <internalNodes>
            0 -1 74 -1321714212 -170385988 -182347265 -3206257
            -1026925571 -71689511 -1710711881 -1112012227</internalNodes>
          <leafValues>
            -6.1110055446624756e-01 5.0181490182876587e-01</leafValues></_>
        <_>
          <internalNodes>
            0 -1 117 -1043904484 2014443155 -2147434351 -1269350125
            1350690131 -1953963511 1409653135 -658539809</internalNodes>
          <leafValues>
            -5.3995239734649658e-01 5.5321019887924194e-01</leafValues></_></weakClassifiers></_>
    <!-- stage 3 -->
    <_>
      <maxWeakCount>7</maxWeakCount>
      <stageThreshold>-9.5988714694976807e-01</stageThreshold>
      <weakClassifiers>
        <_>
          <internalNodes>
            0 -1 122 -1359233537 -1400331777 -989752983 793994968
            -583352321 988001475 -1423451205 -1140850769</internalNodes>
          <leafValues>
            -7.1091908216476440e-01 3.6434108018875122e-01</leafValues></_>
        <_>
          <internalNodes>
            0 -1 8 -69468705 -704780589 -2124717633 -148881614
            -924250433 -124125173 -921600273 2000762679</internalNodes>
          <leafValues>
            -6.8447679281234741e-01 4.1360470652580261e-01</leafValues></_>
        <_>
          <internalNodes>
            0 -1 71 469243101 -4038664 1463940063 -1654832805 -360644709
            -99444518 -1350107393 -1143460656</internalNodes>
          <leafValues>
            -5.4592400789260864e-01 5.1561927795410156e-01</leafValues></_>
        <_>
          <internalNodes>
            0 -1 111 -262144804 -130825963 1350746384 -804658557
            -1066407685 -1122188795 -527841064 -1867516673</internalNodes>
          <leafValues>
            -5.6698149442672729e-01 5.1062887907028198e-01</leafValues></_>
        <_>
          <internalNodes>
            0 -1 30 -308322315 -183678649 -1021000758 1612576255
            1536047221 -376750079 -1265684933 -137663981</internalNodes>
          <leafValues>
            -5.3029429912567139e-01 5.2829748392105103e-01</leafValues></_>
        <_>
          <internalNodes>
            0 -1 35 -1869872643 -619424679 -245297681 -141146024
            705739252 -561887186 -1040025027 2080638880</internalNodes>
          <leafValues>
            -6.4842581748962402e-01 4.1722410917282104e-01</leafValues></_>
        <_>
          <internalNodes>
            0 -1 64 1098123221 -1074921539 -1090572289 2112892861
            -1108049929 -1359159324 -125964305 -102732328</internalNodes>
          <leafValues>
            -4.4731798768043518e-01 6.0289251804351807e-01</leafValues></_></weakClassifiers></_>
    <!-- stage 4 -->
    <_>
      <maxWeakCount>7</maxWeakCount>
      <stageThreshold>-1.2243341207504272e+00</stageThreshold>
      <weakClassifiers>
        <_>
          <internalNodes>
            0 -1 51 -788203011 -112159339 -46115649 -40695897 1002474427
            -70768504 -619132677 -74919800</internalNodes>
          <leafValues>
            -6.2052005529403687e-01 4.0770253539085388e-01</leafValues></_>
        <_>
          <internalNodes>
            0 -1 14 -673187841 -606908263 1243429079 1295503578
            1900763004 25838081 840125786 2138534695</internalNodes>
          <leafValues>
            -6.7502611875534058e-01 3.7420389056205750e-01</leafValues></_>
        <_>
          <internalNodes>
            0 -1 125 -1399135523 181930119 -486485549 733491830
            -339621933 -226389609 -2080268600 -1916798113</internalNodes>
          <leafValues>
            -6.1827677488327026e-01 4.2376580834388733e-01</leafValues></_>
        <_>
          <internalNodes>
            0 -1 91 -790629744 1494757589 -2107329518 -240331752
            -1276321731 -1164373847 -66782792 -856185121</internalNodes>
          <leafValues>
            -5.8028471469879150e-01 4.3944278359413147e-01</leafValues></_>
        <_>
          <internalNodes>
            0 -1 99 462697789 939139525 -870105190 1039656579
            -1424181013 -1110767608 965425642 -1464190007</internalNodes>
          <leafValues>
            -5.7655519247055054e-01 4.5597806572914124e-01</leafValues></_>
        <_>
          <internalNodes>
            0 -1 27 1392881367 -766502885 16779600 1560708174 -628502311
            1686641335 -2146763780 877390509</internalNodes>
          <leafValues>
            -7.2080039978027344e-01 3.6830812692642212e-01</leafValues></_>
        <_>
          <internalNodes>
            0 -1 22 -679611452 -1224388296 55410969 -174865640
            -926056279 -603717494 -912883062 905907919</internalNodes>
          <leafValues>
            -5.0954222679138184e-01 5.0637334585189819e-01</leafValues></_></weakClassifiers></_>
    <!-- stage 5 -->
    <_>
      <maxWeakCount>7</maxWeakCount>
      <stageThreshold>-1.2134046554565430e+00</stageThreshold>
      <weakClassifiers>
        <_>
          <internalNodes>
            0 -1 106 -988290326 -71609788 436424190 -682368531
            -488375416 -2121695228 -508176449 -34607377</internalNodes>
          <leafValues>
            -5.6914895772933960e-01 4.1666665673255920e-01</leafValues></_>
        <_>
          <internalNodes>
            0 -1 20 -771784737 -243150413 -922548451 -49716565 722079103
            -343406334 2027883003 -6065177</internalNodes>
          <leafValues>
            -5.2188771963119507e-01 4.3690529465675354e-01</leafValues></_>
        <_>
          <internalNodes>
            0 -1 92 -551043745 -1694456957 -519998508 -713034921
            -1693882467 -1827061335 -1784549354 83492078</internalNodes>
          <leafValues>
            -6.7940533161163330e-01 3.5293990373611450e-01</leafValues></_>
        <_>
          <internalNodes>
            0 -1 79 -1220002308 -111334179 -247079073 2141009372
            -903219809 -83140117 -1618214950 -1112534908</internalNodes>
          <leafValues>
            -5.6319683790206909e-01 4.2645895481109619e-01</leafValues></_>
        <_>
          <internalNodes>
            0 -1 9 -527763242 -499103358 1346466135 -1411350142
            1518596560 1775884330 1258660567 1664553783</internalNodes>
          <leafValues>
            -6.3236624002456665e-01 3.9747932553291321e-01</leafValues></_>
        <_>
          <internalNodes>
            0 -1 103 361880851 796492231 290199347 793084113 -1551128131
            -1612699408 -1534895375 695963051</internalNodes>
          <leafValues>
            -6.2609875202178955e-01 3.5240572690963745e-01</leafValues></_>
        <_>
          <internalNodes>
            0 -1 88 1899796412 -1303067253 1157718487 -988248710
            1132768762 -224875113 1610741754 -1347941692</internalNodes>
          <leafValues>
            -5.8844387531280518e-01 3.8185170292854309e-01</leafValues></_></weakClassifiers></_>
    <!-- stage 6 -->
    <_>
      <maxWeakCount>8</maxWeakCount>
      <stageThreshold>-9.9232965707778931e-01</stageThreshold>
      <weakClassifiers>
        <_>
          <internalNodes>
            0 -1 110 -134218785 996008195 65405974 63315154 864278686
            -1964054729 948903391 -1073751297</internalNodes>
          <leafValues>
            -5.9336102008819580e-01 3.8630136847496033e-01</leafValues></_>
        <_>
          <internalNodes>
            0 -1 11 -570425345 -724335870 -1245036266 1776186176
            1149453271 -1735772143 1617649752 2037741415</internalNodes>
          <leafValues>
            -5.9593516588211060e-01 3.5177236795425415e-01</leafValues></_>
        <_>
          <internalNodes>
            0 -1 44 52696565 1603883032 -150808355 -1076047777 531652605
            -1651900327 1602801151 2036215656</internalNodes>
          <leafValues>
            -5.4827463626861572e-01 4.1179937124252319e-01</leafValues></_>
        <_>
          <internalNodes>
            0 -1 73 -1659359748 -19590949 -607630052 -1092732
            -1459028237 -12466174 -651826756 501744640</internalNodes>
          <leafValues>
            -7.2022390365600586e-01 2.9281812906265259e-01</leafValues></_>
        <_>
          <internalNodes>
            0 -1 121 -848825413 72380994 -2013117899 553027717
            -1273902888 160506011 546033801 -1936728329</internalNodes>
          <leafValues>
            -5.2596163749694824e-01 4.5350280404090881e-01</leafValues></_>
        <_>
          <internalNodes>
            0 -1 40 -897639171 1532437073 1476395347 1725186193
            -778544900 2089175075 -510391221 1974624506</internalNodes>
          <leafValues>
            -6.4646607637405396e-01 3.5382637381553650e-01</leafValues></_>
        <_>
          <internalNodes>
            0 -1 39 -210902548 398684170 -1792454176 -1055870305
            71405737 689111119 -1055229259 -1196954498</internalNodes>
          <leafValues>
            -5.5673599243164063e-01 4.0279170870780945e-01</leafValues></_>
        <_>
          <internalNodes>
            0 -1 58 873729644 518738068 1342190013 2132092221 -671073636
            924059977 1695164667 1780769512</internalNodes>
          <leafValues>
            -6.9290971755981445e-01 3.4087637066841125e-01</leafValues></_></weakClassifiers></_>
    <!-- stage 7 -->
    <_>
      <maxWeakCount>9</maxWeakCount>
      <stageThreshold>-1.2644921541213989e+00</stageThreshold>
      <weakClassifiers>
        <_>
          <internalNodes>
            0 -1 52 -547356817 -32889 -1 -526921 -16385 -20546 -34209793
            -820278001</internalNodes>
          <leafValues>
            -4.9008166790008545e-01 5.7142859697341919e-01</leafValues></_>
        <_>
          <internalNodes>
            0 -1 66 889235960 -606334607 965129713 536103394 1752497146
            -1472560423 -1716729154 681050152</internalNodes>
          <leafValues>
            -6.0920614004135132e-01 3.3399182558059692e-01</leafValues></_>
        <_>
          <internalNodes>
            0 -1 83 1062483829 -1074511533 -933379685 -1618016121
            -1375682821 -106904647 -1702679306 -1360449366</internalNodes>
          <leafValues>
            -5.1031899452209473e-01 4.1847872734069824e-01</leafValues></_>
        <_>
          <internalNodes>
            0 -1 2 -897526334 -1411677039 21202065 -573110637 41992431
            -1971288960 65136355 -206052269</internalNodes>
          <leafValues>
            -5.0072538852691650e-01 4.6823891997337341e-01</leafValues></_>
        <_>
          <internalNodes>
            0 -1 60 -522660910 1448989169 -1827609907 1618102730
            -2000397727 1075363851 -12323921 -2101981418</internalNodes>
          <leafValues>
            -5.3252744674682617e-01 4.1256898641586304e-01</leafValues></_>
        <_>
          <internalNodes>
            0 -1 102 474603412 781051312 592092447 756123353 1604747386
            1319354504 80136917 751827069</internalNodes>
          <leafValues>
            -7.4783045053482056e-01 2.7076727151870728e-01</leafValues></_>
        <_>
          <internalNodes>
            0 -1 16 -9183233 -9965578 -582 -352911520 -403284140
            931102591 -96514437 -34078861</internalNodes>
          <leafValues>
            -4.5104858279228210e-01 4.8861330747604370e-01</leafValues></_>
        <_>
          <internalNodes>
            0 -1 63 970210737 -1618177763 286163319 -1785921331
            1300793854 -1148813304 -509834333 -2133038356</internalNodes>
          <leafValues>
            -5.8489072322845459e-01 4.0762576460838318e-01</leafValues></_>
        <_>
          <internalNodes>
            0 -1 84 -1185103940 1501036954 -1290478577 -372128956
            -1169792591 2053669023 -1814404724 681836800</internalNodes>
          <leafValues>
            -7.0828461647033691e-01 3.5530453920364380e-01</leafValues></_></weakClassifiers></_>
    <!-- stage 8 -->
    <_>
      <maxWeakCount>9</maxWeakCount>
      <stageThreshold>-1.1263555288314819e+00</stageThreshold>
      <weakClassifiers>
        <_>
          <internalNodes>
            0 -1 46 -212142433 -145370413 1359102426 -547368616
            -1575236610 -108183116 -1010646146 -205544822</internalNodes>
          <leafValues>
            -5.8321481943130493e-01 3.1688311696052551e-01</leafValues></_>
        <_>
          <internalNodes>
            0 -1 32 1557949429 -645319737 -938405481 1037043291
            974142078 -89519988 2072674271 -1342695141</internalNodes>
          <leafValues>
            -4.8428925871849060e-01 3.9638146758079529e-01</leafValues></_>
        <_>
          <internalNodes>
            0 -1 6 -689636638 -717221422 674257093 -404895548
            -1733756724 -86267698 -1728049422 1057213813</internalNodes>
          <leafValues>
            -5.7546466588973999e-01 3.4421473741531372e-01</leafValues></_>
        <_>
          <internalNodes>
            0 -1 120 -493882375 -130325953 134530645 -1361915630
            1102252084 -2138435184 1183582892 150728371</internalNodes>
          <leafValues>
            -5.9401035308837891e-01 3.1716746091842651e-01</leafValues></_>
        <_>
          <internalNodes>
            0 -1 38 -318773342 -67436636 -36895 2078408371 -10692189
            -972260596 -503447842 -74979925</internalNodes>
          <leafValues>
            -3.5015708208084106e-01 5.8879971504211426e-01</leafValues></_>
        <_>
          <internalNodes>
            0 -1 72 -989039320 -578154007 -2096598657 -841051378
            -526333889 -1411284087 1804205049 523771016</internalNodes>
          <leafValues>
            -6.6766673326492310e-01 3.2789742946624756e-01</leafValues></_>
        <_>
          <internalNodes>
            0 -1 101 -2101617 -1628459026 -285284610 -1287656457
            -805371929 1599426382 1784671743 -1360623946</internalNodes>
          <leafValues>
            -4.0642324090003967e-01 5.0905108451843262e-01</leafValues></_>
        <_>
          <internalNodes>
            0 -1 62 -153819638 1069375471 1048494013 -1110451273
            1475665599 -272646291 720846782 -1494225202</internalNodes>
          <leafValues>
            -4.5080927014350891e-01 4.8711413145065308e-01</leafValues></_>
        <_>
          <internalNodes>
            0 -1 123 367014004 692814528 67732097 461919311 -1299414613
            1070074498 566612124 -1420889108</internalNodes>
          <leafValues>
            -6.4522343873977661e-01 3.4425550699234009e-01</leafValues></_></weakClassifiers></_>
    <!-- stage 9 -->
    <_>
      <maxWeakCount>10</maxWeakCount>
      <stageThreshold>-1.7927523851394653e+00</stageThreshold>
      <weakClassifiers>
        <_>
          <internalNodes>
            0 -1 115 -8392913 -143425785 1878518735 -773324825
            1744824183 1937243966 -134250497 -1</internalNodes>
          <leafValues>
            -4.8315912485122681e-01 5.6387662887573242e-01</leafValues></_>
        <_>
          <internalNodes>
            0 -1 13 -762106027 304157065 1342374170 -1085829100
            1127643253 -1827960817 1128928564 -98340047</internalNodes>
          <leafValues>
            -6.7011058330535889e-01 2.8536474704742432e-01</leafValues></_>
        <_>
          <internalNodes>
            0 -1 69 -348069228 -1764327029 -243383049 -1078795578
            -770577665 -302196447 -280129633 -1078459216</internalNodes>
          <leafValues>
            -5.2547842264175415e-01 3.7068015336990356e-01</leafValues></_>
        <_>
          <internalNodes>
            0 -1 114 -234883215 147888415 -2129555453 214202517
            -1056858106 436371761 -1467890238 1155529871</internalNodes>
          <leafValues>
            -5.5361169576644897e-01 3.8515934348106384e-01</leafValues></_>
        <_>
          <internalNodes>
            0 -1 7 -1432689962 -1177108038 1229088796 870096254
            -114849487 -1417115456 -1280136787 -147635165</internalNodes>
          <leafValues>
            -6.1376368999481201e-01 2.8972995281219482e-01</leafValues></_>
        <_>
          <internalNodes>
            0 -1 77 982821932 -1852007543 953617861 -1089731821 50933919
            -1860480688 -1247507926 -1647989458</internalNodes>
          <leafValues>
            -4.9365487694740295e-01 4.2019903659820557e-01</leafValues></_>
        <_>
          <internalNodes>
            0 -1 36 -670150384 1969095005 1426133982 2040435728
            -1391944967 1149878670 -1996059251 88180883</internalNodes>
          <leafValues>
            -6.7749559879302979e-01 2.9947388172149658e-01</leafValues></_>
        <_>
          <internalNodes>
            0 -1 34 -2112502994 1271656598 -1593245709 -802778936
            1015093960 1506345139 1720328366 1994768919</internalNodes>
          <leafValues>
            -5.7742649316787720e-01 3.3826902508735657e-01</leafValues></_>
        <_>
          <internalNodes>
            0 -1 31 -352167369 -715663793 -1056880674 -1087126457
            -601538764 -100445973 276851294 -214534046</internalNodes>
          <leafValues>
            -6.0191619396209717e-01 3.1898283958435059e-01</leafValues></_>
        <_>
          <internalNodes>
            0 -1 4 -1038024717 -957943946 1056890879 1541083128
            1593183862 -2022310660 1609913855 -176951561</internalNodes>
          <leafValues>
            -3.8304713368415833e-01 5.1891398429870605e-01</leafValues></_></weakClassifiers></_>
    <!-- stage 10 -->
    <_>
      <maxWeakCount>8</maxWeakCount>
      <stageThreshold>-1.4918848276138306e+00</stageThreshold>
      <weakClassifiers>
        <_>
          <internalNodes>
            0 -1 54 -18155526 -789548071 1904426594 1032368955
            1347661757 538166915 -476501269 -1055233</internalNodes>
          <leafValues>
            -5.5540812015533447e-01 3.9013454318046570e-01</leafValues></_>
        <_>
          <internalNodes>
            0 -1 105 360044913 771617221 -1794255969 1071077884
            -1836011099 -1379153662 -838677607 -1348499043</internalNodes>
          <leafValues>
            -5.1096749305725098e-01 3.8415393233299255e-01</leafValues></_>
        <_>
          <internalNodes>
            0 -1 23 -475342338 -16250918 153809243 -8387114 -603133730
            -22378110 -1361727489 -295213625</internalNodes>
          <leafValues>
            -4.2941057682037354e-01 4.4016858935356140e-01</leafValues></_>
        <_>
          <internalNodes>
            0 -1 82 752238449 -711622203 -217858573 -6530119 2068364750
            1891101096 -1727157762 681060600</internalNodes>
          <leafValues>
            -6.3419896364212036e-01 3.0836018919944763e-01</leafValues></_>
        <_>
          <internalNodes>
            0 -1 17 -142353803 -783216450 -2130509567 -778898626
            -935114652 458113656 1648585530 1945332311</internalNodes>
          <leafValues>
            -5.8655881881713867e-01 3.3566024899482727e-01</leafValues></_>
        <_>
          <internalNodes>
            0 -1 112 -255331119 -2011883257 302119225 159860576
            -292951600 -224491613 -1564763500 -389023117</internalNodes>
          <leafValues>
            -4.7466599941253662e-01 4.0387460589408875e-01</leafValues></_>
        <_>
          <internalNodes>
            0 -1 68 -170994432 1457457545 1368460738 -719386238 9074827
            59216091 -746548598 720071375</internalNodes>
          <leafValues>
            -4.3926903605461121e-01 4.2488634586334229e-01</leafValues></_>
        <_>
          <internalNodes>
            0 -1 49 -803734340 -619046456 285252996 -408072936
            1695603086 1879099528 1233499386 888695940</internalNodes>
          <leafValues>
            -6.8876969814300537e-01 2.9793003201484680e-01</leafValues></_></weakClassifiers></_>
    <!-- stage 11 -->
    <_>
      <maxWeakCount>11</maxWeakCount>
      <stageThreshold>-1.2432869672775269e+00</stageThreshold>
      <weakClassifiers>
        <_>
          <internalNodes>
            0 -1 53 -381685969 -686566621 -142375475 1945624959
            1255181077 9603458 697757951 -6333473</internalNodes>
          <leafValues>
            -5.4502999782562256e-01 3.5598227381706238e-01</leafValues></_>
        <_>
          <internalNodes>
            0 -1 75 -1780998659 -638164771 -973633825 2046764741
            -636971013 -13773109 -1358886499 -1623716728</internalNodes>
          <leafValues>
            -4.5180916786193848e-01 3.8170897960662842e-01</leafValues></_>
        <_>
          <internalNodes>
            0 -1 12 -548667441 -423236262 1409926664 -287342332
            572931638 2064090382 1929453621 1400369495</internalNodes>
          <leafValues>
            -6.0376197099685669e-01 2.8302055597305298e-01</leafValues></_>
        <_>
          <internalNodes>
            0 -1 1 -2074890974 -1413414800 -2147333930 -2088660181
            1762241515 -1113979768 -922152839 200361407</internalNodes>
          <leafValues>
            -4.8713865876197815e-01 3.6378708481788635e-01</leafValues></_>
        <_>
          <internalNodes>
            0 -1 124 -1330577449 -1122446115 -263581677 -1925255726
            14698883 -357842335 -2096770357 -1368408321</internalNodes>
          <leafValues>
            -5.3345632553100586e-01 3.1587368249893188e-01</leafValues></_>
        <_>
          <internalNodes>
            0 -1 107 -993473756 1623743047 -1274940150 -1875082550
            -373038806 17535671 -1759848344 -1857843276</internalNodes>
          <leafValues>
            -5.7773822546005249e-01 3.7345981597900391e-01</leafValues></_>
        <_>
          <internalNodes>
            0 -1 47 -563020950 1943045057 1225049155 577782896
            1645220152 -859471634 -503161154 -1885009886</internalNodes>
          <leafValues>
            -5.5005931854248047e-01 3.4455782175064087e-01</leafValues></_>
        <_>
          <internalNodes>
            0 -1 5 -1966946894 -676015794 -1811775087 59670934 805423581
            -878870431 -1017816689 -1885869503</internalNodes>
          <leafValues>
            -5.0404047966003418e-01 3.9866432547569275e-01</leafValues></_>
        <_>
          <internalNodes>
            0 -1 97 -22292204 -177188721 -882865650 -1626123882
            1749877464 27886058 -2006905332 -1460930441</internalNodes>
          <leafValues>
            -4.4331586360931396e-01 4.3195906281471252e-01</leafValues></_>
        <_>
          <internalNodes>
            0 -1 108 -1901352081 -1426068097 1879047911 -722732033
            -822083713 209715055 1207940292 -135267268</internalNodes>
          <leafValues>
            -3.9007458090782166e-01 5.1502120494842529e-01</leafValues></_>
        <_>
          <internalNodes>
            0 -1 89 -196276474 302514337 -1807267779 -1794980033
            1879116430 1537843275 -1861465720 -1939355046</internalNodes>
          <leafValues>
            -5.0447279214859009e-01 3.9838984608650208e-01</leafValues></_></weakClassifiers></_>
    <!-- stage 12 -->
    <_>
      <maxWeakCount>13</maxWeakCount>
      <stageThreshold>-1.4836286306381226e+00</stageThreshold>
      <weakClassifiers>
        <_>
          <internalNodes>
            0 -1 65 -603994601 -70261441 806011792 1917778832 -500500973
            1129349123 -1899050347 -134222849</internalNodes>
          <leafValues>
            -5.1784598827362061e-01 4.3350604176521301e-01</leafValues></_>
        <_>
          <internalNodes>
            0 -1 37 1062688087 -717829069 -922510985 89028887 1364804306
            -757750536 -335042163 1337993974</internalNodes>
          <leafValues>
            -5.8549910783767700e-01 2.8796374797821045e-01</leafValues></_>
        <_>
          <internalNodes>
            0 -1 118 -231221251 -1470264879 940676638 545456200
            -334917020 -1743263598 -998545268 16250542</internalNodes>
          <leafValues>
            -6.4142090082168579e-01 2.5194016098976135e-01</leafValues></_>
        <_>
          <internalNodes>
            0 -1 50 489954009 1029578141 285243455 402555099 723532476
            -1449654216 167780607 770728456</internalNodes>
          <leafValues>
            -4.4508957862854004e-01 4.1986176371574402e-01</leafValues></_>
        <_>
          <internalNodes>
            0 -1 28 -91788171 -795745767 1074072027 1946517585
            -372807566 -256769518 -1493796346 1073706531</internalNodes>
          <leafValues>
            -6.4510971307754517e-01 2.6198872923851013e-01</leafValues></_>
        <_>
          <internalNodes>
            0 -1 80 76327568 924651536 -2139043649 197411458 -1983735105
            957090369 -1206803782 228946529</internalNodes>
          <leafValues>
            -6.4611238241195679e-01 2.7508896589279175e-01</leafValues></_>
        <_>
          <internalNodes>
            0 -1 113 1262736285 458899693 16815005 1903530257
            -1165513062 -1341947605 -897128352 11520200</internalNodes>
          <leafValues>
            -6.6299003362655640e-01 2.3293653130531311e-01</leafValues></_>
        <_>
          <internalNodes>
            0 -1 96 227349469 306754014 1291944661 -69840505 -766319941
            -1451116414 1477149588 704524708</internalNodes>
          <leafValues>
            -6.3925254344940186e-01 2.7626359462738037e-01</leafValues></_>
        <_>
          <internalNodes>
            0 -1 109 -8456196 1929281463 -1342198024 -1076019202
            -1107394699 486358527 1056844911 -17180228</internalNodes>
          <leafValues>
            -3.9315426349639893e-01 4.9151378870010376e-01</leafValues></_>
        <_>
          <internalNodes>
            0 -1 24 -632946722 1079972162 -738193288 -45153728 142623697
            176242818 1116323918 1383323191</internalNodes>
          <leafValues>
            -5.4424691200256348e-01 3.7062928080558777e-01</leafValues></_>
        <_>
          <internalNodes>
            0 -1 61 -551048009 1530326524 805285785 -538099849
            -201411009 -50475012 1862200543 -1419255886</internalNodes>
          <leafValues>
            -3.4672218561172485e-01 6.1639368534088135e-01</leafValues></_>
        <_>
          <internalNodes>
            0 -1 98 1152975133 411037551 1726883517 342818359
            -1636001896 989855686 -58905894 -1975020181</internalNodes>
          <leafValues>
            -3.6837348341941833e-01 5.2246308326721191e-01</leafValues></_>
        <_>
          <internalNodes>
            0 -1 57 -773438228 -635894314 1879397815 2111115417
            -402601735 1771655305 -1928807475 976591308</internalNodes>
          <leafValues>
            -5.1607578992843628e-01 4.2003351449966431e-01</leafValues></_></weakClassifiers></_>
    <!-- stage 13 -->
    <_>
      <maxWeakCount>10</maxWeakCount>
      <stageThreshold>-1.0419263839721680e+00</stageThreshold>
      <weakClassifiers>
        <_>
          <internalNodes>
            0 -1 56 -218106074 1903154501 1629974970 1900114319
            1087293155 -1601085017 -120889121 -642258001</internalNodes>
          <leafValues>
            -5.4557824134826660e-01 3.2011330127716064e-01</leafValues></_>
        <_>
          <internalNodes>
            0 -1 94 458692831 -895492331 889276291 -267426671 -243142438
            -2123841519 596605230 -1075048916</internalNodes>
          <leafValues>
            -5.6704074144363403e-01 3.0942571163177490e-01</leafValues></_>
        <_>
          <internalNodes>
            0 -1 126 -1512132609 -1428360239 -1332309735 -1433369250
            1231560892 155910273 -1978799768 -1991002021</internalNodes>
          <leafValues>
            -5.1119631528854370e-01 3.2259789109230042e-01</leafValues></_>
        <_>
          <internalNodes>
            0 -1 33 1423199441 1544559559 -767485421 219418638
            -1186960833 -53339997 -1464850289 1830647990</internalNodes>
          <leafValues>
            -4.8033413290977478e-01 3.8230806589126587e-01</leafValues></_>
        <_>
          <internalNodes>
            0 -1 42 -329332883 1109218435 -1926534844 -678457042
            1252901613 -2121119725 347910304 -201669653</internalNodes>
          <leafValues>
            -4.2487934231758118e-01 4.4066312909126282e-01</leafValues></_>
        <_>
          <internalNodes>
            0 -1 81 -959165584 198468489 1619431837 -909453847
            1262484956 -1569682355 1938684405 998248552</internalNodes>
          <leafValues>
            -7.1077132225036621e-01 2.5039100646972656e-01</leafValues></_>
        <_>
          <internalNodes>
            0 -1 76 -689432363 406872384 353731715 903807528 -1237313091
            -1118784978 1266928633 676183215</internalNodes>
          <leafValues>
            -4.8108208179473877e-01 3.7261989712715149e-01</leafValues></_>
        <_>
          <internalNodes>
            0 -1 41 -666365806 1935065682 285272089 2098577865
            -1056433889 -49732981 2073792731 48887499</internalNodes>
          <leafValues>
            -4.5533549785614014e-01 4.0015485882759094e-01</leafValues></_>
        <_>
          <internalNodes>
            0 -1 29 -653277256 -774731318 -989658997 370112458
            -2113237943 -1738962806 185403791 1957182639</internalNodes>
          <leafValues>
            -5.9864568710327148e-01 2.9605883359909058e-01</leafValues></_>
        <_>
          <internalNodes>
            0 -1 95 -627873810 479170881 -1777334881 -537783594
            -2113386255 34627592 2045087865 597541164</internalNodes>
          <leafValues>
            -5.5205857753753662e-01 3.3629208803176880e-01</leafValues></_></weakClassifiers></_>
    <!-- stage 14 -->
    <_>
      <maxWeakCount>12</maxWeakCount>
      <stageThreshold>-1.2600622177124023e+00</stageThreshold>
      <weakClassifiers>
        <_>
          <internalNodes>
            0 -1 100 -410200593 -149159439 -45615145 1570719057
            -997354785 -1676964980 1089041589 -4196377</internalNodes>
          <leafValues>
            -5.0903427600860596e-01 4.2206653952598572e-01</leafValues></_>
        <_>
          <internalNodes>
            0 -1 48 -487260806 821591935 -147718 1006583677 -1266679815
            846610277 -1241698314 -244588577</internalNodes>
          <leafValues>
            -3.8662824034690857e-01 4.2916423082351685e-01</leafValues></_>
        <_>
          <internalNodes>
            0 -1 85 1067203056 -1663537068 -1056026787 1948654400
            -771383825 -1544011668 2058890732 408959928</internalNodes>
          <leafValues>
            -6.9582754373550415e-01 2.4048161506652832e-01</leafValues></_>
        <_>
          <internalNodes>
            0 -1 90 -1479440500 -657094401 -1580470403 -45634796
            -1442592337 -587038431 -391864950 684185627</internalNodes>
          <leafValues>
            -4.0596926212310791e-01 4.1763305664062500e-01</leafValues></_>
        <_>
          <internalNodes>
            0 -1 78 -1778109636 -1362193250 328541629 -1082048354
            1138591837 -1378840163 -2009384065 754720356</internalNodes>
          <leafValues>
            -6.7754316329956055e-01 2.1526895463466644e-01</leafValues></_>
        <_>
          <internalNodes>
            0 -1 116 -1567100241 -1933535665 419553816 -1077178043
            272695343 679577738 117541058 801486344</internalNodes>
          <leafValues>
            -5.9643054008483887e-01 2.9996350407600403e-01</leafValues></_>
        <_>
          <internalNodes>
            0 -1 43 -44088003 811684880 270078154 1349609639 -1952791216
            1879239482 -372569271 1366714459</internalNodes>
          <leafValues>
            -5.5251473188400269e-01 3.0545434355735779e-01</leafValues></_>
        <_>
          <internalNodes>
            0 -1 26 -791294667 405963924 276928798 -132070957
            -1985790635 -1340043002 -2126468763 -748595145</internalNodes>
          <leafValues>
            -5.3780728578567505e-01 3.2391124963760376e-01</leafValues></_>
        <_>
          <internalNodes>
            0 -1 0 -1049442174 1528054221 323422220 433086557 -668755073
            151695546 -511657570 1099783131</internalNodes>
          <leafValues>
            -5.2226907014846802e-01 3.5455143451690674e-01</leafValues></_>
        <_>
          <internalNodes>
            0 -1 104 -498092690 -535787365 -2012884705 -1754611398
            1773343371 4260134 1828959617 344692949</internalNodes>
          <leafValues>
            -5.0302016735076904e-01 3.7970924377441406e-01</leafValues></_>
        <_>
          <internalNodes>
            0 -1 3 -1580978288 -1147499760 285676313 823480656
            1822857004 738968203 1887971721 815103875</internalNodes>
          <leafValues>
            -6.7170584201812744e-01 2.8024479746818542e-01</leafValues></_>
        <_>
          <internalNodes>
            0 -1 55 -707011793 -804207549 87945423 1947259401 1426752910
            689144992 -1996105056 412342270</internalNodes>
          <leafValues>
            -4.2433324456214905e-01 4.5656117796897888e-01</leafValues></_></weakClassifiers></_></stages>
  <features>
    <_>
      <rect>
        0 0 15 3</rect></_>
    <_>
      <rect>
        0 2 10 4</rect></_>
    <_>
      <rect>
        0 4 5 5</rect></_>
    <_>
      <rect>
        0 6 13 3</rect></_>
    <_>
      <rect>
        0 8 4 2</rect></_>
    <_>
      <rect>
        0 9 6 2</rect></_>
    <_>
      <rect>
        0 9 8 3</rect></_>
    <_>
      <rect>
        0 10 7 2</rect></_>
    <_>
      <rect>
        0 11 8 4</rect></_>
    <_>
      <rect>
        0 12 4 2</rect></_>
    <_>
      <rect>
        0 12 11 4</rect></_>
    <_>
      <rect>
        0 13 4 3</rect></_>
    <_>
      <rect>
        0 15 5 2</rect></_>
    <_>
      <rect>
        0 16 2 3</rect></_>
    <_>
      <rect>
        0 16 5 3</rect></_>
    <_>
      <rect>
        0 16 14 3</rect></_>
    <_>
      <rect>
        0 17 3 2</rect></_>
    <_>
      <rect>
        0 17 4 2</rect></_>
    <_>
      <rect>
        0 18 3 2</rect></_>
    <_>
      <rect>
        0 19 3 2</rect></_>
    <_>
      <rect>
        0 19 7 2</rect></_>
    <_>
      <rect>
        0 19 9 2</rect></_>
    <_>
      <rect>
        1 5 16 6</rect></_>
    <_>
      <rect>
        1 11 5 2</rect></_>
    <_>
      <rect>
        1 13 4 2</rect></_>
    <_>
      <rect>
        1 16 3 3</rect></_>
    <_>
      <rect>
        1 17 2 1</rect></_>
    <_>
      <rect>
        1 17 16 2</rect></_>
    <_>
      <rect>
        1 19 3 2</rect></_>
    <_>
      <rect>
        2 7 15 6</rect></_>
    <_>
      <rect>
        2 19 2 2</rect></_>
    <_>
      <rect>
        2 21 2 1</rect></_>
    <_>
      <rect>
        2 22 6 1</rect></_>
    <_>
      <rect>
        4 22 4 1</rect></_>
    <_>
      <rect>
        5 15 4 1</rect></_>
    <_>
      <rect>
        5 19 10 1</rect></_>
    <_>
      <rect>
        5 19 14 1</rect></_>
    <_>
      <rect>
        6 14 9 3</rect></_>
    <_>
      <rect>
        6 15 4 2</rect></_>
    <_>
      <rect>
        6 17 4 1</rect></_>
    <_>
      <rect>
        6 19 2 2</rect></_>
    <_>
      <rect>
        7 2 14 3</rect></_>
    <_>
      <rect>
        7 16 2 1</rect></_>
    <_>
      <rect>
        7 19 2 1</rect></_>
    <_>
      <rect>
        7 22 7 1</rect></_>
    <_>
      <rect>
        8 10 6 5</rect></_>
    <_>
      <rect>
        8 14 11 2</rect></_>
    <_>
      <rect>
        8 16 7 1</rect></_>
    <_>
      <rect>
        8 17 2 2</rect></_>
    <_>
      <rect>
        8 18 11 1</rect></_>
    <_>
      <rect>
        9 11 8 1</rect></_>
    <_>
      <rect>
        9 11 11 2</rect></_>
    <_>
      <rect>
        9 12 2 3</rect></_>
    <_>
      <rect>
        9 16 2 1</rect></_>
    <_>
      <rect>
        9 17 2 2</rect></_>
    <_>
      <rect>
        10 15 3 2</rect></_>
    <_>
      <rect>
        10 16 2 2</rect></_>
    <_>
      <rect>
        10 20 11 1</rect></_>
    <_>
      <rect>
        11 9 8 2</rect></_>
    <_>
      <rect>
        11 19 13 2</rect></_>
    <_>
      <rect>
        12 16 3 1</rect></_>
    <_>
      <rect>
        13 0 12 4</rect></_>
    <_>
      <rect>
        13 4 12 2</rect></_>
    <_>
      <rect>
        13 11 10 2</rect></_>
    <_>
      <rect>
        13 12 6 1</rect></_>
    <_>
      <rect>
        13 17 1 1</rect></_>
    <_>
      <rect>
        14 13 7 1</rect></_>
    <_>
      <rect>
        14 19 12 2</rect></_>
    <_>
      <rect>
        15 0 11 2</rect></_>
    <_>
      <rect>
        15 17 4 1</rect></_>
    <_>
      <rect>
        15 22 6 1</rect></_>
    <_>
      <rect>
        16 21 4 1</rect></_>
    <_>
      <rect>
        17 18 3 1</rect></_>
    <_>
      <rect>
        17 19 3 1</rect></_>
    <_>
      <rect>
        17 20 3 1</rect></_>
    <_>
      <rect>
        18 19 4 1</rect></_>
    <_>
      <rect>
        18 19 9 1</rect></_>
    <_>
      <rect>
        19 7 10 3</rect></_>
    <_>
      <rect>
        20 14 3 1</rect></_>
    <_>
      <rect>
        20 19 4 1</rect></_>
    <_>
      <rect>
        21 8 4 2</rect></_>
    <_>
      <rect>
        21 13 2 1</rect></_>
    <_>
      <rect>
        21 21 4 1</rect></_>
    <_>
      <rect>
        22 22 5 1</rect></_>
    <_>
      <rect>
        23 18 4 1</rect></_>
    <_>
      <rect>
        23 20 4 1</rect></_>
    <_>
      <rect>
        24 1 8 7</rect></_>
    <_>
      <rect>
        24 21 4 1</rect></_>
    <_>
      <rect>
        25 16 2 1</rect></_>
    <_>
      <rect>
        26 4 8 3</rect></_>
    <_>
      <rect>
        26 9 8 2</rect></_>
    <_>
      <rect>
        26 9 8 3</rect></_>
    <_>
      <rect>
        26 10 8 5</rect></_>
    <_>
      <rect>
        26 13 8 4</rect></_>
    <_>
      <rect>
        26 15 3 3</rect></_>
    <_>
      <rect>
        26 16 7 1</rect></_>
    <_>
      <rect>
        27 21 2 1</rect></_>
    <_>
      <rect>
        28 0 7 3</rect></_>
    <_>
      <rect>
        28 6 5 1</rect></_>
    <_>
      <rect>
        29 22 3 1</rect></_>
    <_>
      <rect>
        30 16 3 1</rect></_>
    <_>
      <rect>
        30 17 5 1</rect></_>
    <_>
      <rect>
        30 19 6 2</rect></_>
    <_>
      <rect>
        30 22 6 1</rect></_>
    <_>
      <rect>
        32 18 2 1</rect></_>
    <_>
      <rect>
        32 22 6 1</rect></_>
    <_>
      <rect>
        33 16 3 2</rect></_>
    <_>
      <rect>
        33 18 2 1</rect></_>
    <_>
      <rect>
        34 17 1 1</rect></_>
    <_>
      <rect>
        34 18 2 2</rect></_>
    <_>
      <rect>
        34 19 2 2</rect></_>
    <_>
      <rect>
        35 4 5 6</rect></_>
    <_>
      <rect>
        35 11 5 2</rect></_>
    <_>
      <rect>
        35 13 5 3</rect></_>
    <_>
      <rect>
        35 15 5 3</rect></_>
    <_>
      <rect>
        36 17 2 1</rect></_>
    <_>
      <rect>
        36 19 4 2</rect></_>
    <_>
      <rect>
        38 4 4 5</rect></_>
    <_>
      <rect>
        38 13 4 2</rect></_>
    <_>
      <rect>
        38 13 4 4</rect></_>
    <_>
      <rect>
        41 12 3 3</rect></_>
    <_>
      <rect>
        41 15 3 2</rect></_>
    <_>
      <rect>
        41 19 3 2</rect></_>
    <_>
      <rect>
        42 22 1 1</rect></_>
    <_>
      <rect>
        43 19 1 2</rect></_>
    <_>
      <rect>
        43 19 2 2</rect></_>
    <_>
      <rect>
        44 16 2 2</rect></_></features></cascade>
</opencv_storage>
